~h "speaker"
<BEGINHMM>
<NUMSTATES> 3
<STATE> 2
<MEAN> 39
 -5.082225e+00 3.982367e+00 -7.197697e-01 -9.173648e+00 2.086836e+00 -8.998974e+00 -8.199940e+00 1.284767e+00 5.328773e-01 3.061137e-01 -2.405128e+00 -1.716521e+00 6.856225e+01 6.154441e-03 1.597052e-02 1.556204e-03 9.779976e-04 -1.404641e-02 5.529255e-04 -7.100846e-03 -1.468378e-03 -7.061228e-03 -9.534549e-03 1.364146e-02 -1.074023e-03 -4.794824e-03 -1.610471e-03 2.255383e-03 -2.175921e-03 3.696258e-03 1.946870e-03 1.241731e-03 1.770806e-03 1.211543e-03 -1.569174e-03 3.639033e-03 4.749371e-03 6.422922e-03 -6.666430e-03
<VARIANCE> 39
 1.187131e+02 3.335015e+01 6.030525e+01 1.019203e+02 7.328522e+01 9.592013e+01 1.188274e+02 7.114619e+01 7.180795e+01 2.405059e+01 3.853842e+01 2.804758e+01 6.348481e+01 4.175172e+00 2.155601e+00 3.586910e+00 5.071088e+00 3.691230e+00 4.211236e+00 6.917050e+00 3.800553e+00 3.854606e+00 2.441062e+00 3.509262e+00 2.654112e+00 3.045118e+00 5.569248e-01 3.578149e-01 5.311546e-01 7.420131e-01 5.628281e-01 7.021801e-01 1.012596e+00 6.230080e-01 6.531282e-01 4.835335e-01 6.156138e-01 4.826650e-01 4.058960e-01
<GCONST> 1.346720e+02
<TRANSP> 3
 0.000000e+00 1.000000e+00 0.000000e+00
 0.000000e+00 9.000000e-01 9.999999e-02
 0.000000e+00 0.000000e+00 0.000000e+00
<ENDHMM>
