~o
<STREAMINFO> 1 39
<VECSIZE> 39<NULLD><MFCC_D_A_0><DIAGC>
~h "proto"
<BEGINHMM>
<NUMSTATES> 3
<STATE> 2
<MEAN> 39
 -5.359227e+00 -9.228980e+00 3.472740e+00 -5.758687e+00 2.537682e+00 -7.328784e+00 3.246535e+00 -7.635340e+00 2.018640e+00 8.029112e-01 1.253977e+00 -2.073719e+00 5.844841e+01 6.659322e-03 8.986497e-03 1.737550e-03 4.022513e-03 -5.738447e-03 1.666927e-02 1.132500e-02 1.223783e-02 -4.769758e-03 -1.336100e-02 9.923476e-03 3.853502e-04 5.728213e-03 1.120616e-03 -2.356031e-03 -1.475420e-03 2.419698e-03 7.791140e-03 4.768836e-03 -8.157119e-03 -1.624241e-03 -4.529064e-03 8.608418e-03 -1.240158e-04 1.425070e-03 6.433901e-04
<VARIANCE> 39
 1.085451e+00 2.276324e+00 3.807879e+00 4.552969e+00 5.654170e+00 7.150173e+00 8.192681e+00 8.036757e+00 9.348443e+00 9.585784e+00 9.539936e+00 7.262462e+00 6.271145e-01 1.118437e-01 2.552803e-01 3.616412e-01 5.196219e-01 6.542758e-01 8.441927e-01 9.968972e-01 1.067912e+00 9.766882e-01 1.052947e+00 1.137988e+00 7.784588e-01 6.411535e-02 2.214994e-02 4.909966e-02 6.532349e-02 1.011595e-01 1.339481e-01 1.749536e-01 2.050992e-01 2.181183e-01 1.905126e-01 1.994526e-01 2.297700e-01 1.506380e-01 1.271249e-02
<GCONST> 5.328670e+01
<TRANSP> 3
 0.000000e+00 1.000000e+00 0.000000e+00
 0.000000e+00 9.000000e-01 9.999999e-02
 0.000000e+00 0.000000e+00 0.000000e+00
<ENDHMM>
