~o
<STREAMINFO> 1 39
<VECSIZE> 39<NULLD><MFCC_D_A_0><DIAGC>
~h "Eugene"
<BEGINHMM>
<NUMSTATES> 3
<STATE> 2
<MEAN> 39
 -5.658891e+00 -9.174165e+00 2.938848e+00 -5.992335e+00 2.311440e+00 -7.173341e+00 3.516548e+00 -7.617526e+00 1.673109e+00 6.542667e-01 1.480717e+00 -2.241386e+00 5.858125e+01 6.223528e-03 8.398333e-03 -2.699986e-03 -3.216770e-03 -3.864630e-02 3.354136e-02 -1.926499e-02 -2.408922e-02 -2.596733e-04 2.227130e-02 6.125698e-02 -3.227356e-03 -3.927639e-03 8.565959e-04 2.163953e-03 7.914810e-03 2.440881e-03 1.060878e-02 -8.301694e-05 4.062713e-03 -9.701079e-04 -8.488593e-04 4.463234e-03 -2.145389e-02 -1.281602e-02 3.001638e-03
<VARIANCE> 39
 1.307418e+00 2.480491e+00 3.517205e+00 5.557718e+00 6.627925e+00 6.938349e+00 9.651428e+00 8.575532e+00 9.153822e+00 8.346052e+00 1.056272e+01 6.954564e+00 6.348481e-01 1.351052e-01 2.586314e-01 3.886237e-01 6.931698e-01 6.947470e-01 7.719610e-01 1.173000e+00 1.209171e+00 1.017989e+00 8.439329e-01 1.357771e+00 7.772046e-01 5.434363e-02 2.689609e-02 4.616509e-02 6.956988e-02 1.393976e-01 1.349107e-01 1.516795e-01 2.415740e-01 2.566784e-01 2.038322e-01 1.641673e-01 2.862605e-01 1.497103e-01 1.016848e-02
<GCONST> 5.516707e+01
<TRANSP> 3
 0.000000e+00 1.000000e+00 0.000000e+00
 0.000000e+00 9.846154e-01 1.538461e-02
 0.000000e+00 0.000000e+00 0.000000e+00
<ENDHMM>
~h "sil"
<BEGINHMM>
<NUMSTATES> 3
<STATE> 2
<MEAN> 39
 -5.333549e+00 -9.212579e+00 4.073136e+00 -5.339784e+00 2.793312e+00 -7.527098e+00 3.149717e+00 -7.741560e+00 2.123599e+00 1.054506e+00 1.306866e+00 -2.163525e+00 5.832288e+01 1.129882e-02 1.041452e-02 -1.842750e-02 -1.157183e-02 -2.821472e-04 -1.162553e-02 5.112640e-02 7.991078e-02 1.277391e-02 2.098988e-03 2.952170e-02 -5.740694e-03 1.149977e-02 3.354857e-03 1.174012e-03 -8.827508e-03 2.076272e-03 8.548299e-03 6.671062e-03 -1.103384e-02 -5.158679e-03 -7.439236e-03 1.051999e-02 1.287016e-02 8.488611e-03 -9.440754e-04
<VARIANCE> 39
 1.187131e+00 2.335727e+00 3.642653e+00 4.251967e+00 4.529387e+00 7.195868e+00 7.823293e+00 8.143842e+00 8.775167e+00 9.566315e+00 9.529288e+00 7.712200e+00 7.731352e-01 9.963297e-02 2.745201e-01 3.155705e-01 4.251097e-01 5.370269e-01 9.120483e-01 9.045303e-01 1.143384e+00 8.643568e-01 9.175908e-01 1.183260e+00 8.056951e-01 9.192380e-02 1.990463e-02 5.507352e-02 5.493276e-02 7.613268e-02 1.095112e-01 2.013122e-01 1.787095e-01 2.328541e-01 1.580312e-01 1.676143e-01 2.407088e-01 1.476537e-01 1.879582e-02
<GCONST> 5.236243e+01
<TRANSP> 3
 0.000000e+00 1.000000e+00 0.000000e+00
 0.000000e+00 9.843750e-01 1.562500e-02
 0.000000e+00 0.000000e+00 0.000000e+00
<ENDHMM>
~h "Mike"
<BEGINHMM>
<NUMSTATES> 3
<STATE> 2
<MEAN> 39
 -5.081995e+00 -9.300664e+00 3.414872e+00 -5.939342e+00 2.511960e+00 -7.288556e+00 3.070038e+00 -7.547669e+00 2.263336e+00 7.028039e-01 9.722709e-01 -1.814975e+00 5.843905e+01 2.484174e-03 8.160154e-03 2.628163e-02 2.685038e-02 2.208240e-02 2.777058e-02 2.636818e-03 -1.838101e-02 -2.677933e-02 -6.474251e-02 -6.143872e-02 1.012978e-02 9.742484e-03 -8.352885e-04 -1.043461e-02 -3.648958e-03 2.739938e-03 4.191061e-03 7.778587e-03 -1.764177e-02 1.230977e-03 -5.352291e-03 1.089490e-02 8.500058e-03 8.786814e-03 -1.600544e-04
<VARIANCE> 39
 1.187131e+00 2.002833e+00 3.616015e+00 3.574991e+00 5.671899e+00 7.253510e+00 6.972124e+00 7.366566e+00 9.923903e+00 1.076241e+01 8.383056e+00 7.022761e+00 6.348481e-01 1.004495e-01 2.327516e-01 3.791843e-01 4.374820e-01 7.281288e-01 8.484608e-01 9.082605e-01 8.432833e-01 1.045897e+00 1.394621e+00 8.627513e-01 7.524862e-01 4.618036e-02 1.957947e-02 4.602341e-02 7.122231e-02 8.742221e-02 1.572646e-01 1.722106e-01 1.942502e-01 1.644781e-01 2.093448e-01 2.667507e-01 1.611099e-01 1.542354e-01 9.222290e-03
<GCONST> 5.121062e+01
<TRANSP> 3
 0.000000e+00 1.000000e+00 0.000000e+00
 0.000000e+00 9.844559e-01 1.554404e-02
 0.000000e+00 0.000000e+00 0.000000e+00
<ENDHMM>
