~o
<STREAMINFO> 1 39
<VECSIZE> 39<NULLD><MFCC_D_A_0><DIAGC>
~h "proto"
<BEGINHMM>
<NUMSTATES> 3
<STATE> 2
<MEAN> 39
 -5.038964e+00 -9.509127e+00 3.697979e+00 -6.593898e+00 2.201536e+00 -6.446616e+00 3.153067e+00 -6.922779e+00 8.955719e-01 -1.663637e+00 4.512936e-01 -1.538057e+00 5.821258e+01 -1.887505e-03 -9.731872e-03 -1.963275e-03 1.040429e-02 2.521318e-02 8.537319e-03 -4.142421e-04 -7.028219e-03 1.615708e-02 -2.068052e-03 1.024940e-02 1.366031e-02 -8.778230e-03 -1.460627e-04 -4.485774e-04 -6.834747e-03 -8.949321e-03 -2.252712e-03 1.020636e-03 -8.222767e-03 -4.388630e-03 7.749294e-03 8.066764e-03 1.448230e-02 1.291667e-02 2.688224e-04
<VARIANCE> 39
 9.123142e-01 1.775287e+00 3.225872e+00 4.657472e+00 6.994261e+00 7.175993e+00 7.635309e+00 8.055822e+00 8.905501e+00 9.388626e+00 7.985106e+00 6.590912e+00 2.908446e-01 9.948140e-02 2.089020e-01 3.618434e-01 5.248708e-01 7.809945e-01 7.852738e-01 8.400503e-01 1.015473e+00 1.094530e+00 1.163121e+00 9.265586e-01 8.284867e-01 3.084745e-02 1.841236e-02 3.998899e-02 6.757265e-02 1.003252e-01 1.533177e-01 1.552225e-01 1.638485e-01 2.083291e-01 2.269934e-01 2.531253e-01 2.003520e-01 1.688842e-01 6.315447e-03
<GCONST> 4.974315e+01
<TRANSP> 3
 0.000000e+00 1.000000e+00 0.000000e+00
 0.000000e+00 9.000000e-01 9.999999e-02
 0.000000e+00 0.000000e+00 0.000000e+00
<ENDHMM>
