~o
<STREAMINFO> 1 39
<VECSIZE> 39<NULLD><MFCC_D_A_0><DIAGC>
~h "proto"
<BEGINHMM>
<NUMSTATES> 3
<STATE> 2
<MEAN> 39
 -4.963913e+00 -9.174562e+00 3.933776e+00 -6.679069e+00 1.783631e+00 -7.623449e+00 3.048879e+00 -7.515530e+00 3.676372e-01 -9.973027e-01 1.320952e+00 -1.958348e+00 5.851735e+01 4.028072e-03 2.295934e-03 -6.064216e-03 1.089638e-02 1.933001e-02 1.514466e-02 -6.726672e-03 2.624573e-02 -2.202231e-03 -1.803824e-02 3.102469e-03 -2.306521e-02 1.060380e-02 3.115630e-03 8.585347e-04 1.280560e-03 -1.069342e-03 3.164017e-03 -2.922195e-03 -5.029649e-03 2.817319e-04 -1.462311e-03 5.411971e-03 3.255772e-03 -4.961856e-03 2.155773e-03
<VARIANCE> 39
 9.676675e-01 1.863737e+00 3.270990e+00 4.368454e+00 5.885275e+00 7.879303e+00 9.942332e+00 8.629156e+00 8.274354e+00 8.658404e+00 8.399031e+00 7.388260e+00 5.159629e-01 9.563830e-02 2.121233e-01 3.754418e-01 5.193713e-01 6.432635e-01 8.771146e-01 1.070670e+00 9.081898e-01 1.014186e+00 1.036479e+00 9.927421e-01 8.812422e-01 5.904755e-02 1.743358e-02 3.952138e-02 7.425234e-02 1.030785e-01 1.190422e-01 1.792316e-01 2.113462e-01 1.769332e-01 2.022269e-01 2.118432e-01 1.897674e-01 1.761159e-01 1.086794e-02
<GCONST> 5.154973e+01
<TRANSP> 3
 0.000000e+00 1.000000e+00 0.000000e+00
 0.000000e+00 9.000000e-01 9.999999e-02
 0.000000e+00 0.000000e+00 0.000000e+00
<ENDHMM>
