~o
<STREAMINFO> 1 39
<VECSIZE> 39<NULLD><MFCC_D_A_0><DIAGC>
~h "teee"
<BEGINHMM>
<NUMSTATES> 3
<STATE> 2
<MEAN> 39
 -4.914164e+00 -9.139492e+00 4.069986e+00 -6.986207e+00 1.225001e+00 -8.269999e+00 2.580597e+00 -7.660208e+00 1.010027e-01 -1.392606e+00 9.791145e-01 -2.865707e+00 5.854746e+01 -1.174218e-02 -1.881874e-02 -2.244172e-02 2.376011e-03 7.310976e-03 -8.181064e-03 -9.466449e-02 8.194299e-02 4.519393e-02 -3.278349e-02 -3.420445e-03 -7.771768e-02 3.392254e-02 9.472498e-03 -1.071412e-03 1.091724e-02 5.905068e-03 8.472390e-04 8.415886e-03 -9.322920e-03 -1.323618e-02 1.739566e-02 3.409427e-02 2.322397e-02 7.984942e-05 9.300645e-03
<VARIANCE> 39
 1.187131e+00 1.721271e+00 3.342164e+00 5.116238e+00 6.999477e+00 9.186950e+00 1.207532e+01 9.601882e+00 7.519557e+00 8.397592e+00 8.912740e+00 7.374025e+00 8.024302e-01 1.137418e-01 1.869859e-01 3.687248e-01 6.329352e-01 6.418689e-01 9.127071e-01 1.268337e+00 1.157435e+00 8.393995e-01 1.022186e+00 1.050870e+00 9.829424e-01 9.437620e-02 2.093947e-02 2.967370e-02 6.327086e-02 1.190594e-01 1.117882e-01 1.782361e-01 2.460699e-01 2.191938e-01 1.619062e-01 2.095795e-01 1.833303e-01 1.993438e-01 1.427741e-02
<GCONST> 5.427129e+01
<TRANSP> 3
 0.000000e+00 1.000000e+00 0.000000e+00
 0.000000e+00 9.843750e-01 1.562500e-02
 0.000000e+00 0.000000e+00 0.000000e+00
<ENDHMM>
~h "mike"
<BEGINHMM>
<NUMSTATES> 3
<STATE> 2
<MEAN> 39
 -4.985919e+00 -9.397293e+00 3.669080e+00 -6.524808e+00 2.214296e+00 -7.386560e+00 2.880583e+00 -7.403960e+00 6.151082e-01 -8.013245e-01 1.316084e+00 -1.355360e+00 5.853409e+01 -1.798784e-03 5.408627e-03 2.287755e-02 4.496733e-02 1.521604e-02 3.475788e-02 1.088806e-02 -3.674018e-02 -4.854244e-02 -5.018521e-02 -5.591158e-02 -4.096615e-02 4.751232e-03 1.290693e-03 3.467245e-03 2.348136e-03 4.575169e-04 -9.522063e-03 -1.407216e-02 2.032549e-03 7.006397e-03 8.683826e-03 1.631874e-02 -1.126842e-04 6.632030e-04 -4.036181e-04
<VARIANCE> 39
 1.187131e+00 2.089433e+00 3.348614e+00 4.240823e+00 5.482740e+00 8.231484e+00 1.074133e+01 8.497186e+00 8.363330e+00 8.769547e+00 8.070903e+00 6.412374e+00 6.348481e-01 7.292160e-02 2.551469e-01 3.686247e-01 4.839502e-01 6.142551e-01 8.753259e-01 1.140528e+00 7.987558e-01 1.140748e+00 1.225936e+00 1.012786e+00 7.748869e-01 5.805143e-02 1.417963e-02 5.113268e-02 7.650764e-02 1.006705e-01 1.241554e-01 1.713243e-01 2.287609e-01 1.582280e-01 2.388040e-01 2.654146e-01 1.950302e-01 1.536837e-01 1.242951e-02
<GCONST> 5.225603e+01
<TRANSP> 3
 0.000000e+00 1.000000e+00 0.000000e+00
 0.000000e+00 9.846154e-01 1.538461e-02
 0.000000e+00 0.000000e+00 0.000000e+00
<ENDHMM>
~h "sil"
<BEGINHMM>
<NUMSTATES> 3
<STATE> 2
<MEAN> 39
 -5.209473e+00 -9.098505e+00 3.888772e+00 -6.441306e+00 1.923394e+00 -7.536352e+00 3.111074e+00 -7.294971e+00 4.206502e-01 -9.806869e-01 1.737675e+00 -2.107953e+00 5.857101e+01 1.717593e-02 7.855588e-03 -1.461710e-02 -3.099025e-02 1.336985e-02 4.149091e-03 2.858445e-02 2.557519e-02 -2.962002e-03 2.700450e-03 -1.524563e-02 -1.618595e-02 3.153899e-03 4.586659e-04 -4.863545e-03 -1.830082e-03 -6.268273e-03 8.866488e-03 1.651246e-03 -1.599007e-02 -1.352799e-03 -2.457157e-02 -1.795214e-02 -4.314411e-03 -8.635662e-03 3.535830e-04
<VARIANCE> 39
 1.339120e+00 2.168042e+00 3.612758e+00 4.437886e+00 6.210758e+00 6.806903e+00 8.205619e+00 6.505544e+00 8.244142e+00 1.034550e+01 8.458923e+00 6.987216e+00 6.348481e-01 1.243248e-01 2.550849e-01 4.593580e-01 5.965202e-01 7.176955e-01 8.743677e-01 1.030453e+00 6.017256e-01 9.609335e-01 1.169018e+00 9.928094e-01 8.208510e-01 5.727754e-02 2.258112e-02 4.913676e-02 9.387080e-02 1.223841e-01 1.291862e-01 1.976142e-01 2.219251e-01 1.087815e-01 1.939321e-01 2.302615e-01 2.215732e-01 1.635015e-01 1.224021e-02
<GCONST> 5.318100e+01
<TRANSP> 3
 0.000000e+00 1.000000e+00 0.000000e+00
 0.000000e+00 9.845361e-01 1.546392e-02
 0.000000e+00 0.000000e+00 0.000000e+00
<ENDHMM>
~h "gene"
<BEGINHMM>
<NUMSTATES> 3
<STATE> 2
<MEAN> 39
 -4.743196e+00 -9.060273e+00 4.111873e+00 -6.768838e+00 1.763649e+00 -7.305485e+00 3.625242e+00 -7.707023e+00 3.293689e-01 -8.178272e-01 1.246669e+00 -1.512232e+00 5.841590e+01 1.243142e-02 1.463173e-02 -1.043873e-02 2.713636e-02 4.154962e-02 2.966086e-02 2.764223e-02 3.519607e-02 -1.766389e-03 8.401587e-03 8.810075e-02 4.281703e-02 7.565927e-04 1.296866e-03 5.920711e-03 -6.297323e-03 -4.341383e-03 1.260324e-02 -7.557170e-03 3.165664e-03 8.621457e-03 -7.274964e-03 -1.074000e-02 -5.642296e-03 -1.200446e-02 -5.687580e-04
<VARIANCE> 39
 1.187131e+00 1.398862e+00 2.652107e+00 3.496571e+00 4.330482e+00 6.713858e+00 8.168498e+00 9.816638e+00 8.831739e+00 6.873924e+00 7.860182e+00 7.384686e+00 6.348481e-01 7.109249e-02 1.495168e-01 3.030811e-01 3.605405e-01 5.982208e-01 8.448492e-01 8.321983e-01 1.072532e+00 1.109810e+00 7.220347e-01 9.030420e-01 9.408770e-01 3.045118e-02 1.197711e-02 2.779133e-02 6.295919e-02 6.994718e-02 1.105630e-01 1.693863e-01 1.479884e-01 2.222305e-01 2.127463e-01 1.393322e-01 1.581749e-01 1.882957e-01 4.417523e-03
<GCONST> 4.516857e+01
<TRANSP> 3
 0.000000e+00 1.000000e+00 0.000000e+00
 0.000000e+00 9.843750e-01 1.562500e-02
 0.000000e+00 0.000000e+00 0.000000e+00
<ENDHMM>
