~o
<STREAMINFO> 1 39
<VECSIZE> 39<NULLD><MFCC_D_A_0><DIAGC>
~h "mike"
<BEGINHMM>
<NUMSTATES> 3
<STATE> 2
<MEAN> 39
 -5.071094e+00 -9.497420e+00 3.506302e+00 -6.586847e+00 2.207518e+00 -6.202972e+00 2.995871e+00 -6.836524e+00 7.767023e-01 -1.997810e+00 2.328863e-01 -2.039600e+00 5.824204e+01 1.413032e-02 -1.843185e-02 -3.718771e-02 -2.602445e-03 3.806600e-02 6.329125e-02 2.093166e-02 -5.900009e-02 1.639289e-02 -5.979508e-03 2.127692e-02 2.471125e-02 -9.533717e-03 -5.234438e-03 2.633232e-03 7.567358e-03 7.542240e-03 2.338740e-03 -4.369755e-03 -1.039693e-02 -1.022729e-03 -3.398869e-03 1.394829e-02 1.061009e-02 -4.014480e-03 3.650151e-03
<VARIANCE> 39
 1.333994e+00 1.810366e+00 3.385298e+00 4.394722e+00 6.152441e+00 6.571212e+00 6.315676e+00 7.095774e+00 8.484208e+00 9.268597e+00 7.528371e+00 6.681379e+00 6.348481e-01 1.403918e-01 2.321401e-01 3.512445e-01 4.389598e-01 7.175842e-01 7.940366e-01 7.299546e-01 1.002406e+00 1.103623e+00 1.118644e+00 8.531519e-01 8.764755e-01 3.177224e-02 2.432008e-02 4.589500e-02 6.239552e-02 8.107700e-02 1.380676e-01 1.640265e-01 1.327524e-01 2.094043e-01 2.330526e-01 2.448341e-01 1.858697e-01 1.683399e-01 6.683002e-03
<GCONST> 5.010070e+01
<TRANSP> 3
 0.000000e+00 1.000000e+00 0.000000e+00
 0.000000e+00 9.847715e-01 1.522843e-02
 0.000000e+00 0.000000e+00 0.000000e+00
<ENDHMM>
~h "sil"
<BEGINHMM>
<NUMSTATES> 3
<STATE> 2
<MEAN> 39
 -5.091262e+00 -9.647867e+00 3.707261e+00 -6.496427e+00 2.140020e+00 -6.171822e+00 3.520942e+00 -6.766472e+00 1.202565e+00 -1.152350e+00 6.722932e-01 -1.243039e+00 5.799178e+01 -1.152448e-02 -1.485962e-02 2.465382e-02 3.413165e-02 4.707226e-02 -5.301518e-03 -1.224604e-02 3.820143e-02 4.900602e-02 -7.271435e-04 2.850058e-02 -2.274004e-04 -1.212407e-02 3.208121e-03 -5.724052e-03 -1.680381e-02 -1.702429e-02 -9.966278e-03 -2.869592e-03 -5.989711e-03 -1.573294e-02 5.208177e-03 7.211624e-04 2.812637e-03 2.123641e-02 6.082609e-04
<VARIANCE> 39
 1.187131e+00 1.752824e+00 3.147883e+00 5.806212e+00 7.183876e+00 6.501474e+00 6.813617e+00 8.323849e+00 8.438499e+00 9.574504e+00 8.486119e+00 6.802925e+00 6.348481e-01 6.595934e-02 1.836918e-01 3.710829e-01 6.990096e-01 8.621464e-01 6.556157e-01 7.291507e-01 9.598579e-01 9.725767e-01 1.269283e+00 9.398599e-01 8.267438e-01 3.045118e-02 1.334595e-02 3.430286e-02 7.323844e-02 1.323015e-01 1.739828e-01 1.254209e-01 1.513018e-01 1.916394e-01 1.983740e-01 2.822152e-01 1.915605e-01 1.710732e-01 4.058960e-03
<GCONST> 4.946859e+01
<TRANSP> 3
 0.000000e+00 1.000000e+00 0.000000e+00
 0.000000e+00 9.846154e-01 1.538461e-02
 0.000000e+00 0.000000e+00 0.000000e+00
<ENDHMM>
~h "gene"
<BEGINHMM>
<NUMSTATES> 3
<STATE> 2
<MEAN> 39
 -4.952868e+00 -9.380212e+00 3.885219e+00 -6.700127e+00 2.257876e+00 -6.975694e+00 2.940731e+00 -7.170036e+00 7.057470e-01 -1.840040e+00 4.509357e-01 -1.323080e+00 5.840653e+01 -8.534911e-03 4.402520e-03 7.145471e-03 -3.483362e-04 -1.017499e-02 -3.358743e-02 -1.029937e-02 3.606675e-04 -1.744710e-02 5.834401e-04 -1.960164e-02 1.642632e-02 -4.604959e-03 1.668231e-03 1.747259e-03 -1.148708e-02 -1.766922e-02 8.703424e-04 1.050242e-02 -8.259931e-03 3.679372e-03 2.176859e-02 9.492459e-03 3.030735e-02 2.183900e-02 -3.545302e-03
<VARIANCE> 39
 1.187131e+00 1.726161e+00 3.068709e+00 3.739475e+00 7.658402e+00 8.063949e+00 9.615941e+00 8.674933e+00 9.665814e+00 8.911768e+00 7.846339e+00 5.890050e+00 6.348481e-01 9.114981e-02 2.103589e-01 3.612595e-01 4.352981e-01 7.617300e-01 9.029221e-01 1.064937e+00 1.080462e+00 1.206834e+00 1.100913e+00 9.870147e-01 7.806906e-01 4.466941e-02 1.745509e-02 3.966134e-02 6.679486e-02 8.717740e-02 1.478850e-01 1.763213e-01 2.084872e-01 2.239687e-01 2.495122e-01 2.319962e-01 2.237363e-01 1.667751e-01 9.258616e-03
<GCONST> 5.214157e+01
<TRANSP> 3
 0.000000e+00 1.000000e+00 0.000000e+00
 0.000000e+00 9.843750e-01 1.562500e-02
 0.000000e+00 0.000000e+00 0.000000e+00
<ENDHMM>
