~o
<STREAMINFO> 1 39
<VECSIZE> 39<NULLD><MFCC_D_A_0><DIAGC>
~h "Eugene"
<BEGINHMM>
<NUMSTATES> 3
<STATE> 2
<MEAN> 39
 -5.658891e+00 -9.174166e+00 2.938848e+00 -5.992336e+00 2.311440e+00 -7.173341e+00 3.516548e+00 -7.617526e+00 1.673109e+00 6.542666e-01 1.480718e+00 -2.241386e+00 5.858125e+01 6.223531e-03 8.398341e-03 -2.699977e-03 -3.216761e-03 -3.864631e-02 3.354137e-02 -1.926499e-02 -2.408922e-02 -2.596559e-04 2.227134e-02 6.125698e-02 -3.227347e-03 -3.927640e-03 8.565950e-04 2.163954e-03 7.914811e-03 2.440885e-03 1.060878e-02 -8.302656e-05 4.062715e-03 -9.701056e-04 -8.488710e-04 4.463236e-03 -2.145389e-02 -1.281603e-02 3.001640e-03
<VARIANCE> 39
 1.307418e+00 2.480393e+00 3.517207e+00 5.557723e+00 6.627923e+00 6.938346e+00 9.651425e+00 8.575575e+00 9.153821e+00 8.346057e+00 1.056271e+01 6.954561e+00 6.348481e-01 1.351052e-01 2.586313e-01 3.886238e-01 6.931697e-01 6.947470e-01 7.719607e-01 1.173000e+00 1.209171e+00 1.017989e+00 8.439329e-01 1.357771e+00 7.772045e-01 5.434367e-02 2.689608e-02 4.616510e-02 6.956987e-02 1.393976e-01 1.349107e-01 1.516795e-01 2.415741e-01 2.566784e-01 2.038322e-01 1.641673e-01 2.862606e-01 1.497103e-01 1.016849e-02
<GCONST> 5.516704e+01
<TRANSP> 3
 0.000000e+00 1.000000e+00 0.000000e+00
 0.000000e+00 9.846154e-01 1.538461e-02
 0.000000e+00 0.000000e+00 0.000000e+00
<ENDHMM>
~h "sil"
<BEGINHMM>
<NUMSTATES> 3
<STATE> 2
<MEAN> 39
 -5.333549e+00 -9.212582e+00 4.073136e+00 -5.339785e+00 2.793312e+00 -7.527098e+00 3.149718e+00 -7.741560e+00 2.123598e+00 1.054506e+00 1.306867e+00 -2.163525e+00 5.832288e+01 1.129881e-02 1.041451e-02 -1.842752e-02 -1.157182e-02 -2.821553e-04 -1.162553e-02 5.112641e-02 7.991076e-02 1.277391e-02 2.099020e-03 2.952171e-02 -5.740677e-03 1.149977e-02 3.354859e-03 1.174010e-03 -8.827507e-03 2.076267e-03 8.548301e-03 6.671060e-03 -1.103384e-02 -5.158676e-03 -7.439241e-03 1.051999e-02 1.287016e-02 8.488603e-03 -9.440759e-04
<VARIANCE> 39
 1.187131e+00 2.335598e+00 3.642660e+00 4.251972e+00 4.529388e+00 7.195867e+00 7.823264e+00 8.143837e+00 8.775167e+00 9.566319e+00 9.529272e+00 7.712203e+00 7.730631e-01 9.963294e-02 2.745199e-01 3.155705e-01 4.251099e-01 5.370268e-01 9.120482e-01 9.045301e-01 1.143385e+00 8.643568e-01 9.175907e-01 1.183260e+00 8.056949e-01 9.192376e-02 1.990464e-02 5.507351e-02 5.493279e-02 7.613269e-02 1.095112e-01 2.013122e-01 1.787095e-01 2.328541e-01 1.580312e-01 1.676143e-01 2.407088e-01 1.476538e-01 1.879581e-02
<GCONST> 5.236229e+01
<TRANSP> 3
 0.000000e+00 1.000000e+00 0.000000e+00
 0.000000e+00 9.843750e-01 1.562500e-02
 0.000000e+00 0.000000e+00 0.000000e+00
<ENDHMM>
~h "Mike"
<BEGINHMM>
<NUMSTATES> 3
<STATE> 2
<MEAN> 39
 -5.081995e+00 -9.300661e+00 3.414873e+00 -5.939343e+00 2.511960e+00 -7.288556e+00 3.070039e+00 -7.547669e+00 2.263337e+00 7.028038e-01 9.722713e-01 -1.814975e+00 5.843905e+01 2.484171e-03 8.160143e-03 2.628164e-02 2.685037e-02 2.208241e-02 2.777056e-02 2.636801e-03 -1.838100e-02 -2.677932e-02 -6.474251e-02 -6.143871e-02 1.012979e-02 9.742489e-03 -8.352909e-04 -1.043461e-02 -3.648951e-03 2.739934e-03 4.191072e-03 7.778583e-03 -1.764177e-02 1.230968e-03 -5.352304e-03 1.089490e-02 8.500062e-03 8.786815e-03 -1.600541e-04
<VARIANCE> 39
 1.187131e+00 2.002942e+00 3.616004e+00 3.575001e+00 5.671899e+00 7.253509e+00 6.972130e+00 7.366572e+00 9.923903e+00 1.076242e+01 8.383053e+00 7.022760e+00 6.348481e-01 1.004495e-01 2.327515e-01 3.791843e-01 4.374819e-01 7.281287e-01 8.484611e-01 9.082613e-01 8.432831e-01 1.045898e+00 1.394621e+00 8.627510e-01 7.524862e-01 4.618037e-02 1.957946e-02 4.602339e-02 7.122231e-02 8.742224e-02 1.572645e-01 1.722106e-01 1.942501e-01 1.644782e-01 2.093448e-01 2.667508e-01 1.611099e-01 1.542354e-01 9.222290e-03
<GCONST> 5.121069e+01
<TRANSP> 3
 0.000000e+00 1.000000e+00 0.000000e+00
 0.000000e+00 9.844559e-01 1.554404e-02
 0.000000e+00 0.000000e+00 0.000000e+00
<ENDHMM>
