~o
<STREAMINFO> 1 39
<VECSIZE> 39<NULLD><MFCC_D_A_0><DIAGC>
~h "mike"
<BEGINHMM>
<NUMSTATES> 3
<STATE> 2
<MEAN> 39
 -5.071094e+00 -9.497420e+00 3.506302e+00 -6.586847e+00 2.207518e+00 -6.202973e+00 2.995872e+00 -6.836524e+00 7.767023e-01 -1.997810e+00 2.328863e-01 -2.039600e+00 5.824204e+01 1.413032e-02 -1.843185e-02 -3.718771e-02 -2.602441e-03 3.806600e-02 6.329125e-02 2.093165e-02 -5.900007e-02 1.639288e-02 -5.979510e-03 2.127692e-02 2.471126e-02 -9.533717e-03 -5.234439e-03 2.633235e-03 7.567361e-03 7.542238e-03 2.338747e-03 -4.369754e-03 -1.039692e-02 -1.022713e-03 -3.398867e-03 1.394829e-02 1.061008e-02 -4.014477e-03 3.650151e-03
<VARIANCE> 39
 1.333994e+00 1.810365e+00 3.385298e+00 4.394722e+00 6.152441e+00 6.571211e+00 6.315675e+00 7.095774e+00 8.484208e+00 9.268595e+00 7.528372e+00 6.681379e+00 6.348481e-01 1.403918e-01 2.321401e-01 3.512445e-01 4.389598e-01 7.175841e-01 7.940366e-01 7.299546e-01 1.002406e+00 1.103623e+00 1.118644e+00 8.531519e-01 8.764755e-01 3.177224e-02 2.432008e-02 4.589500e-02 6.239553e-02 8.107700e-02 1.380676e-01 1.640265e-01 1.327524e-01 2.094043e-01 2.330526e-01 2.448341e-01 1.858697e-01 1.683399e-01 6.683002e-03
<GCONST> 5.010070e+01
<TRANSP> 3
 0.000000e+00 1.000000e+00 0.000000e+00
 0.000000e+00 9.847715e-01 1.522843e-02
 0.000000e+00 0.000000e+00 0.000000e+00
<ENDHMM>
~h "sil"
<BEGINHMM>
<NUMSTATES> 3
<STATE> 2
<MEAN> 39
 -5.091262e+00 -9.647867e+00 3.707261e+00 -6.496427e+00 2.140020e+00 -6.171822e+00 3.520942e+00 -6.766472e+00 1.202565e+00 -1.152350e+00 6.722932e-01 -1.243039e+00 5.799178e+01 -1.152448e-02 -1.485962e-02 2.465382e-02 3.413165e-02 4.707225e-02 -5.301524e-03 -1.224605e-02 3.820143e-02 4.900602e-02 -7.271558e-04 2.850058e-02 -2.274013e-04 -1.212407e-02 3.208120e-03 -5.724050e-03 -1.680381e-02 -1.702429e-02 -9.966275e-03 -2.869589e-03 -5.989709e-03 -1.573294e-02 5.208186e-03 7.211631e-04 2.812639e-03 2.123641e-02 6.082606e-04
<VARIANCE> 39
 1.187131e+00 1.752824e+00 3.147883e+00 5.806211e+00 7.183876e+00 6.501474e+00 6.813617e+00 8.323850e+00 8.438501e+00 9.574504e+00 8.486119e+00 6.802925e+00 6.348481e-01 6.595934e-02 1.836918e-01 3.710829e-01 6.990096e-01 8.621464e-01 6.556157e-01 7.291507e-01 9.598579e-01 9.725767e-01 1.269283e+00 9.398599e-01 8.267438e-01 3.045118e-02 1.334595e-02 3.430286e-02 7.323844e-02 1.323015e-01 1.739828e-01 1.254209e-01 1.513018e-01 1.916394e-01 1.983740e-01 2.822152e-01 1.915605e-01 1.710732e-01 4.058960e-03
<GCONST> 4.946859e+01
<TRANSP> 3
 0.000000e+00 1.000000e+00 0.000000e+00
 0.000000e+00 9.846154e-01 1.538461e-02
 0.000000e+00 0.000000e+00 0.000000e+00
<ENDHMM>
~h "gene"
<BEGINHMM>
<NUMSTATES> 3
<STATE> 2
<MEAN> 39
 -4.952868e+00 -9.380212e+00 3.885219e+00 -6.700127e+00 2.257876e+00 -6.975694e+00 2.940732e+00 -7.170036e+00 7.057470e-01 -1.840040e+00 4.509357e-01 -1.323080e+00 5.840653e+01 -8.534910e-03 4.402522e-03 7.145475e-03 -3.483404e-04 -1.017499e-02 -3.358743e-02 -1.029937e-02 3.606694e-04 -1.744710e-02 5.834389e-04 -1.960165e-02 1.642631e-02 -4.604957e-03 1.668231e-03 1.747259e-03 -1.148708e-02 -1.766922e-02 8.703407e-04 1.050242e-02 -8.259932e-03 3.679368e-03 2.176859e-02 9.492455e-03 3.030735e-02 2.183899e-02 -3.545303e-03
<VARIANCE> 39
 1.187131e+00 1.726161e+00 3.068709e+00 3.739477e+00 7.658402e+00 8.063949e+00 9.615939e+00 8.674932e+00 9.665814e+00 8.911769e+00 7.846339e+00 5.890050e+00 6.348481e-01 9.114981e-02 2.103589e-01 3.612595e-01 4.352981e-01 7.617300e-01 9.029221e-01 1.064937e+00 1.080462e+00 1.206834e+00 1.100913e+00 9.870147e-01 7.806906e-01 4.466941e-02 1.745509e-02 3.966134e-02 6.679486e-02 8.717740e-02 1.478850e-01 1.763212e-01 2.084872e-01 2.239687e-01 2.495122e-01 2.319962e-01 2.237363e-01 1.667751e-01 9.258616e-03
<GCONST> 5.214157e+01
<TRANSP> 3
 0.000000e+00 1.000000e+00 0.000000e+00
 0.000000e+00 9.843750e-01 1.562500e-02
 0.000000e+00 0.000000e+00 0.000000e+00
<ENDHMM>
