~o
<STREAMINFO> 1 39
<VECSIZE> 39<NULLD><MFCC_D_A_0><DIAGC>
~h "Eugene"
<BEGINHMM>
<NUMSTATES> 3
<STATE> 2
<MEAN> 39
 -5.402699e+00 -1.012703e+01 -2.930323e+00 -5.893825e+00 -2.086476e+00 -6.677620e+00 2.523817e+00 -5.556775e+00 -2.891517e+00 -1.482707e-01 -9.923169e-02 -5.904317e-01 6.642818e+01 -2.683949e-02 5.903617e-03 -1.418221e-02 4.244795e-02 4.938884e-02 1.294438e-03 -3.346063e-02 -1.671257e-02 -1.075540e-01 -5.574941e-02 1.795920e-02 2.694343e-02 -2.759260e-02 -4.813306e-03 -3.546766e-03 1.503639e-03 1.463632e-02 -2.685128e-03 -3.228305e-03 -4.430690e-03 -1.364616e-02 9.892032e-03 1.272593e-02 -1.709929e-02 -1.533167e-02 9.359572e-03
<VARIANCE> 39
 7.675267e+00 3.787096e+01 4.903361e+01 5.868643e+01 3.663797e+01 3.102627e+01 2.740554e+01 2.983535e+01 5.243813e+01 3.853473e+01 3.818903e+01 3.205320e+01 3.344987e+01 1.207882e+00 3.159270e+00 2.780989e+00 4.685847e+00 2.615350e+00 3.284505e+00 3.570835e+00 3.832248e+00 4.640497e+00 4.652539e+00 4.418602e+00 3.584930e+00 1.789527e+00 2.958468e-01 5.044706e-01 5.713362e-01 7.543017e-01 4.543604e-01 6.536341e-01 7.842925e-01 8.326353e-01 8.974466e-01 9.465020e-01 9.246621e-01 7.294387e-01 3.285063e-01
<GCONST> 1.263235e+02
<TRANSP> 3
 0.000000e+00 1.000000e+00 0.000000e+00
 0.000000e+00 9.846154e-01 1.538461e-02
 0.000000e+00 0.000000e+00 0.000000e+00
<ENDHMM>
~h "Clap"
<BEGINHMM>
<NUMSTATES> 3
<STATE> 2
<MEAN> 39
 -5.708853e+00 -8.169442e+00 4.464002e+00 -3.820993e+00 1.266312e+00 -5.537718e+00 1.120691e+00 -7.954764e+00 -1.401145e+00 -2.233224e+00 3.657057e+00 -1.718641e+00 6.249812e+01 1.818021e-02 1.867516e-03 -1.349422e-02 2.845333e-03 -7.195477e-04 4.599176e-02 3.425681e-02 -2.288128e-02 3.458706e-02 1.413345e-03 2.058875e-02 -4.622769e-02 -1.591662e-02 6.131012e-03 7.966053e-03 2.845547e-02 -5.319069e-04 -1.673894e-02 -8.417211e-03 -1.117412e-02 -3.523665e-03 -1.518340e-02 -9.289292e-03 2.707471e-03 -1.471645e-02 -1.191097e-04
<VARIANCE> 39
 1.125441e+01 8.444902e+00 8.102718e+00 6.000644e+00 1.068274e+01 2.965841e+01 1.555478e+01 1.506441e+01 1.643012e+01 1.344838e+01 1.092964e+01 1.162946e+01 3.303697e+01 1.838743e+00 1.189411e+00 1.151160e+00 7.894829e-01 1.111520e+00 4.306093e+00 1.982304e+00 1.977265e+00 2.103669e+00 1.584893e+00 1.419876e+00 1.397440e+00 5.661770e+00 4.016973e-01 2.458508e-01 2.447929e-01 1.716747e-01 2.171801e-01 9.454518e-01 4.001959e-01 4.369299e-01 4.102600e-01 3.000787e-01 3.117031e-01 2.992802e-01 1.253629e+00
<GCONST> 9.926093e+01
<TRANSP> 3
 0.000000e+00 1.000000e+00 0.000000e+00
 0.000000e+00 9.845361e-01 1.546392e-02
 0.000000e+00 0.000000e+00 0.000000e+00
<ENDHMM>
~h "sil"
<BEGINHMM>
<NUMSTATES> 3
<STATE> 2
<MEAN> 39
 -5.414442e+00 -1.029122e+01 3.282829e-01 -6.756342e+00 1.983008e+00 -6.283010e+00 2.619977e+00 -8.629902e+00 -2.939167e+00 -1.410621e+00 2.149747e+00 -9.350008e-01 6.289597e+01 9.170231e-03 2.242077e-02 1.530271e-02 -1.247338e-02 -1.264065e-02 2.771268e-02 8.593494e-02 -1.241652e-02 1.976146e-02 -1.482230e-02 3.052558e-02 -1.210228e-02 -1.202133e-02 4.216411e-03 5.930928e-03 -3.370145e-03 -3.956974e-03 -2.951090e-04 3.054691e-03 4.060561e-03 1.838860e-02 3.493636e-02 -3.841475e-03 1.162836e-02 -1.209275e-02 -7.805366e-04
<VARIANCE> 39
 3.673400e+00 1.034966e+01 1.791559e+01 1.633887e+01 1.322120e+01 2.109509e+01 1.956251e+01 1.860648e+01 1.847213e+01 1.723016e+01 2.140791e+01 2.542606e+01 6.274066e+00 3.058026e-01 1.000265e+00 1.155077e+00 1.661879e+00 1.859126e+00 1.730928e+00 1.945508e+00 1.936208e+00 1.844578e+00 1.961081e+00 2.477074e+00 2.077711e+00 3.593899e-01 5.912506e-02 1.930799e-01 2.534210e-01 3.189224e-01 4.163528e-01 3.565657e-01 3.894111e-01 3.786919e-01 3.530315e-01 4.063199e-01 5.661755e-01 4.169144e-01 7.541380e-02
<GCONST> 9.350453e+01
<TRANSP> 3
 0.000000e+00 1.000000e+00 0.000000e+00
 0.000000e+00 9.844559e-01 1.554404e-02
 0.000000e+00 0.000000e+00 0.000000e+00
<ENDHMM>
