~o
<STREAMINFO> 1 39
<VECSIZE> 39<NULLD><MFCC_D_A_0><DIAGC>
~h "Eugene"
<BEGINHMM>
<NUMSTATES> 3
<STATE> 2
<MEAN> 39
 -1.970350e+00 -5.055929e+00 5.759339e+00 -4.121456e+00 5.790621e+00 2.026357e+00 3.188327e+00 -4.279291e+00 9.260572e-01 1.954145e-01 -6.278775e-01 -2.575762e+00 8.132845e+01 6.080683e-04 4.071953e-04 2.927156e-03 3.859115e-03 -2.679751e-03 -2.419829e-03 -1.444225e-03 1.789001e-03 -2.241082e-03 3.449657e-03 6.135585e-03 3.566141e-04 -6.125374e-04 -5.866308e-06 -1.762144e-04 -3.401803e-05 -1.874472e-04 -4.320849e-04 -1.613042e-04 -4.688812e-04 -4.063545e-04 8.594909e-04 -6.325031e-05 3.626361e-04 -5.041510e-04 -2.569511e-04
<VARIANCE> 39
 3.161341e+01 2.773245e+01 1.921151e+01 2.129928e+01 2.294167e+01 3.838879e+01 3.031492e+01 3.465049e+01 1.869966e+01 2.778720e+01 1.885163e+01 1.903863e+01 2.048764e+01 4.954680e-01 3.880230e-01 5.404338e-01 7.412375e-01 8.100615e-01 9.998558e-01 1.125799e+00 1.284092e+00 1.131357e+00 1.171728e+00 1.113783e+00 1.095101e+00 2.500577e-01 6.112853e-02 6.421907e-02 9.453877e-02 1.410830e-01 1.525292e-01 1.864119e-01 2.123688e-01 2.403175e-01 2.229992e-01 2.352090e-01 2.170639e-01 2.135599e-01 2.662684e-02
<GCONST> 8.401176e+01
<TRANSP> 3
 0.000000e+00 1.000000e+00 0.000000e+00
 0.000000e+00 9.992732e-01 7.267443e-04
 0.000000e+00 0.000000e+00 0.000000e+00
<ENDHMM>
~h "Mike"
<BEGINHMM>
<NUMSTATES> 3
<STATE> 2
<MEAN> 39
 -2.317076e+00 -5.578865e+00 3.009372e+00 -6.132914e+00 3.173623e+00 6.756614e-01 -3.846955e-01 -4.208544e+00 -2.887678e-01 -3.699949e-01 6.366560e-01 -3.465731e+00 8.307903e+01 2.645261e-04 -1.628748e-03 2.507514e-03 -1.500858e-03 1.769726e-03 2.104586e-03 3.443340e-04 -1.901601e-03 -8.907741e-05 -1.633990e-03 -1.140808e-03 3.111559e-03 4.853306e-05 8.281882e-05 -1.602025e-04 4.794829e-05 -5.960653e-05 -4.210627e-05 -4.451074e-04 2.492725e-04 2.652908e-04 -2.338154e-04 -1.308745e-04 -1.747039e-04 6.545536e-04 5.522295e-05
<VARIANCE> 39
 2.216915e+01 1.251501e+01 1.880636e+01 1.968935e+01 2.550240e+01 3.491544e+01 3.141633e+01 2.040163e+01 1.970569e+01 2.736975e+01 2.229031e+01 2.046395e+01 9.008044e+00 4.694347e-01 4.534375e-01 5.912668e-01 8.230942e-01 8.311654e-01 9.686909e-01 1.169491e+00 1.188313e+00 1.128871e+00 1.120018e+00 1.026323e+00 9.934537e-01 1.897949e-01 5.980512e-02 7.219350e-02 1.023592e-01 1.488600e-01 1.522314e-01 1.811354e-01 2.201580e-01 2.301954e-01 2.244117e-01 2.193142e-01 1.990327e-01 1.912284e-01 2.179127e-02
<GCONST> 8.121173e+01
<TRANSP> 3
 0.000000e+00 1.000000e+00 0.000000e+00
 0.000000e+00 9.992732e-01 7.267443e-04
 0.000000e+00 0.000000e+00 0.000000e+00
<ENDHMM>
