~o
<STREAMINFO> 1 39
<VECSIZE> 39<NULLD><MFCC_D_A_0><DIAGC>
~h "teee"
<BEGINHMM>
<NUMSTATES> 3
<STATE> 2
<MEAN> 39
 -4.914164e+00 -9.139491e+00 4.069986e+00 -6.986206e+00 1.225001e+00 -8.269999e+00 2.580597e+00 -7.660209e+00 1.010027e-01 -1.392606e+00 9.791138e-01 -2.865706e+00 5.854746e+01 -1.174218e-02 -1.881874e-02 -2.244171e-02 2.376032e-03 7.310997e-03 -8.181072e-03 -9.466451e-02 8.194303e-02 4.519393e-02 -3.278349e-02 -3.420458e-03 -7.771767e-02 3.392256e-02 9.472503e-03 -1.071416e-03 1.091724e-02 5.905059e-03 8.472412e-04 8.415880e-03 -9.322920e-03 -1.323618e-02 1.739565e-02 3.409427e-02 2.322398e-02 7.984663e-05 9.300638e-03
<VARIANCE> 39
 1.187131e+00 1.721332e+00 3.342163e+00 5.116234e+00 6.999476e+00 9.186952e+00 1.207534e+01 9.601899e+00 7.519557e+00 8.397588e+00 8.912747e+00 7.374027e+00 8.025068e-01 1.137417e-01 1.869858e-01 3.687246e-01 6.329352e-01 6.418692e-01 9.127070e-01 1.268338e+00 1.157436e+00 8.393996e-01 1.022186e+00 1.050870e+00 9.829421e-01 9.437618e-02 2.093946e-02 2.967372e-02 6.327086e-02 1.190595e-01 1.117881e-01 1.782361e-01 2.460700e-01 2.191938e-01 1.619063e-01 2.095795e-01 1.833302e-01 1.993438e-01 1.427741e-02
<GCONST> 5.427144e+01
<TRANSP> 3
 0.000000e+00 1.000000e+00 0.000000e+00
 0.000000e+00 9.843750e-01 1.562500e-02
 0.000000e+00 0.000000e+00 0.000000e+00
<ENDHMM>
~h "mike"
<BEGINHMM>
<NUMSTATES> 3
<STATE> 2
<MEAN> 39
 -4.985919e+00 -9.397289e+00 3.669079e+00 -6.524808e+00 2.214296e+00 -7.386560e+00 2.880582e+00 -7.403957e+00 6.151081e-01 -8.013245e-01 1.316085e+00 -1.355360e+00 5.853409e+01 -1.798784e-03 5.408633e-03 2.287756e-02 4.496733e-02 1.521605e-02 3.475787e-02 1.088803e-02 -3.674019e-02 -4.854244e-02 -5.018520e-02 -5.591155e-02 -4.096616e-02 4.751237e-03 1.290694e-03 3.467246e-03 2.348137e-03 4.575188e-04 -9.522067e-03 -1.407217e-02 2.032547e-03 7.006403e-03 8.683806e-03 1.631874e-02 -1.126863e-04 6.632017e-04 -4.036157e-04
<VARIANCE> 39
 1.187131e+00 2.089537e+00 3.348633e+00 4.240819e+00 5.482739e+00 8.231484e+00 1.074133e+01 8.497249e+00 8.363328e+00 8.769549e+00 8.070901e+00 6.412375e+00 6.348481e-01 7.292163e-02 2.551468e-01 3.686249e-01 4.839498e-01 6.142550e-01 8.753253e-01 1.140528e+00 7.987558e-01 1.140748e+00 1.225936e+00 1.012786e+00 7.748871e-01 5.805142e-02 1.417962e-02 5.113267e-02 7.650762e-02 1.006705e-01 1.241554e-01 1.713243e-01 2.287609e-01 1.582280e-01 2.388040e-01 2.654146e-01 1.950302e-01 1.536837e-01 1.242951e-02
<GCONST> 5.225607e+01
<TRANSP> 3
 0.000000e+00 1.000000e+00 0.000000e+00
 0.000000e+00 9.846154e-01 1.538461e-02
 0.000000e+00 0.000000e+00 0.000000e+00
<ENDHMM>
~h "sil"
<BEGINHMM>
<NUMSTATES> 3
<STATE> 2
<MEAN> 39
 -5.209473e+00 -9.098500e+00 3.888770e+00 -6.441306e+00 1.923394e+00 -7.536352e+00 3.111075e+00 -7.294970e+00 4.206501e-01 -9.806869e-01 1.737676e+00 -2.107953e+00 5.857101e+01 1.717592e-02 7.855578e-03 -1.461710e-02 -3.099025e-02 1.336985e-02 4.149101e-03 2.858446e-02 2.557519e-02 -2.961991e-03 2.700466e-03 -1.524564e-02 -1.618594e-02 3.153890e-03 4.586667e-04 -4.863542e-03 -1.830079e-03 -6.268274e-03 8.866489e-03 1.651235e-03 -1.599006e-02 -1.352797e-03 -2.457158e-02 -1.795214e-02 -4.314413e-03 -8.635649e-03 3.535828e-04
<VARIANCE> 39
 1.339120e+00 2.168166e+00 3.612779e+00 4.437879e+00 6.210757e+00 6.806906e+00 8.205588e+00 6.505598e+00 8.244137e+00 1.034550e+01 8.458907e+00 6.987215e+00 6.348481e-01 1.243248e-01 2.550849e-01 4.593580e-01 5.965201e-01 7.176955e-01 8.743675e-01 1.030453e+00 6.017256e-01 9.609330e-01 1.169018e+00 9.928093e-01 8.208514e-01 5.727755e-02 2.258111e-02 4.913679e-02 9.387076e-02 1.223840e-01 1.291862e-01 1.976142e-01 2.219251e-01 1.087815e-01 1.939322e-01 2.302616e-01 2.215733e-01 1.635015e-01 1.224021e-02
<GCONST> 5.318106e+01
<TRANSP> 3
 0.000000e+00 1.000000e+00 0.000000e+00
 0.000000e+00 9.845361e-01 1.546392e-02
 0.000000e+00 0.000000e+00 0.000000e+00
<ENDHMM>
~h "gene"
<BEGINHMM>
<NUMSTATES> 3
<STATE> 2
<MEAN> 39
 -4.743196e+00 -9.060274e+00 4.111874e+00 -6.768838e+00 1.763649e+00 -7.305485e+00 3.625239e+00 -7.707025e+00 3.293688e-01 -8.178272e-01 1.246669e+00 -1.512232e+00 5.841590e+01 1.243142e-02 1.463171e-02 -1.043873e-02 2.713637e-02 4.154963e-02 2.966085e-02 2.764222e-02 3.519607e-02 -1.766399e-03 8.401592e-03 8.810072e-02 4.281706e-02 7.565918e-04 1.296867e-03 5.920711e-03 -6.297320e-03 -4.341383e-03 1.260324e-02 -7.557169e-03 3.165666e-03 8.621461e-03 -7.274971e-03 -1.074002e-02 -5.642278e-03 -1.200446e-02 -5.687573e-04
<VARIANCE> 39
 1.187131e+00 1.398822e+00 2.652112e+00 3.496572e+00 4.330482e+00 6.713858e+00 8.168618e+00 9.816617e+00 8.831736e+00 6.873922e+00 7.860180e+00 7.384686e+00 6.348481e-01 7.109252e-02 1.495167e-01 3.030810e-01 3.605407e-01 5.982209e-01 8.448488e-01 8.321986e-01 1.072531e+00 1.109810e+00 7.220347e-01 9.030417e-01 9.408777e-01 3.045118e-02 1.197711e-02 2.779133e-02 6.295921e-02 6.994716e-02 1.105630e-01 1.693863e-01 1.479883e-01 2.222306e-01 2.127464e-01 1.393322e-01 1.581749e-01 1.882957e-01 4.417523e-03
<GCONST> 4.516853e+01
<TRANSP> 3
 0.000000e+00 1.000000e+00 0.000000e+00
 0.000000e+00 9.843750e-01 1.562500e-02
 0.000000e+00 0.000000e+00 0.000000e+00
<ENDHMM>
