~o
<STREAMINFO> 1 39
<VECSIZE> 39<NULLD><MFCC_D_A_0><DIAGC>
~h "mike"
<BEGINHMM>
<NUMSTATES> 3
<STATE> 2
<MEAN> 39
 -5.071094e+00 -9.497422e+00 3.506304e+00 -6.586848e+00 2.207518e+00 -6.202973e+00 2.995870e+00 -6.836524e+00 7.767023e-01 -1.997809e+00 2.328855e-01 -2.039600e+00 5.824204e+01 1.413032e-02 -1.843184e-02 -3.718771e-02 -2.602451e-03 3.806602e-02 6.329125e-02 2.093163e-02 -5.900010e-02 1.639292e-02 -5.979496e-03 2.127691e-02 2.471126e-02 -9.533720e-03 -5.234439e-03 2.633237e-03 7.567365e-03 7.542236e-03 2.338753e-03 -4.369758e-03 -1.039692e-02 -1.022726e-03 -3.398874e-03 1.394829e-02 1.061010e-02 -4.014474e-03 3.650151e-03
<VARIANCE> 39
 1.333994e+00 1.810319e+00 3.385276e+00 4.394725e+00 6.152441e+00 6.571213e+00 6.315744e+00 7.095753e+00 8.484211e+00 9.268597e+00 7.528378e+00 6.681382e+00 6.348481e-01 1.403918e-01 2.321400e-01 3.512444e-01 4.389600e-01 7.175840e-01 7.940366e-01 7.299545e-01 1.002406e+00 1.103623e+00 1.118644e+00 8.531517e-01 8.764758e-01 3.177223e-02 2.432008e-02 4.589498e-02 6.239554e-02 8.107702e-02 1.380676e-01 1.640265e-01 1.327524e-01 2.094044e-01 2.330527e-01 2.448340e-01 1.858696e-01 1.683398e-01 6.683003e-03
<GCONST> 5.010068e+01
<TRANSP> 3
 0.000000e+00 1.000000e+00 0.000000e+00
 0.000000e+00 9.847715e-01 1.522843e-02
 0.000000e+00 0.000000e+00 0.000000e+00
<ENDHMM>
~h "sil"
<BEGINHMM>
<NUMSTATES> 3
<STATE> 2
<MEAN> 39
 -5.091262e+00 -9.647870e+00 3.707262e+00 -6.496428e+00 2.140020e+00 -6.171822e+00 3.520941e+00 -6.766474e+00 1.202564e+00 -1.152350e+00 6.722943e-01 -1.243039e+00 5.799178e+01 -1.152449e-02 -1.485962e-02 2.465381e-02 3.413164e-02 4.707228e-02 -5.301522e-03 -1.224606e-02 3.820143e-02 4.900603e-02 -7.271558e-04 2.850058e-02 -2.274019e-04 -1.212407e-02 3.208122e-03 -5.724050e-03 -1.680381e-02 -1.702428e-02 -9.966267e-03 -2.869600e-03 -5.989707e-03 -1.573295e-02 5.208181e-03 7.211617e-04 2.812635e-03 2.123641e-02 6.082590e-04
<VARIANCE> 39
 1.187131e+00 1.752681e+00 3.147870e+00 5.806217e+00 7.183879e+00 6.501471e+00 6.813598e+00 8.323809e+00 8.438499e+00 9.574509e+00 8.486109e+00 6.802927e+00 6.348481e-01 6.595933e-02 1.836917e-01 3.710829e-01 6.990096e-01 8.621468e-01 6.556157e-01 7.291508e-01 9.598579e-01 9.725767e-01 1.269283e+00 9.398597e-01 8.267437e-01 3.045118e-02 1.334595e-02 3.430285e-02 7.323845e-02 1.323015e-01 1.739829e-01 1.254209e-01 1.513018e-01 1.916393e-01 1.983741e-01 2.822152e-01 1.915605e-01 1.710733e-01 4.058960e-03
<GCONST> 4.946850e+01
<TRANSP> 3
 0.000000e+00 1.000000e+00 0.000000e+00
 0.000000e+00 9.846154e-01 1.538461e-02
 0.000000e+00 0.000000e+00 0.000000e+00
<ENDHMM>
~h "gene"
<BEGINHMM>
<NUMSTATES> 3
<STATE> 2
<MEAN> 39
 -4.952868e+00 -9.380206e+00 3.885219e+00 -6.700126e+00 2.257876e+00 -6.975694e+00 2.940728e+00 -7.170038e+00 7.057470e-01 -1.840039e+00 4.509362e-01 -1.323080e+00 5.840653e+01 -8.534917e-03 4.402518e-03 7.145472e-03 -3.483320e-04 -1.017499e-02 -3.358745e-02 -1.029938e-02 3.606656e-04 -1.744710e-02 5.834413e-04 -1.960163e-02 1.642633e-02 -4.604958e-03 1.668229e-03 1.747258e-03 -1.148707e-02 -1.766922e-02 8.703454e-04 1.050241e-02 -8.259924e-03 3.679376e-03 2.176858e-02 9.492456e-03 3.030736e-02 2.183899e-02 -3.545303e-03
<VARIANCE> 39
 1.187131e+00 1.726360e+00 3.068700e+00 3.739473e+00 7.658404e+00 8.063945e+00 9.616017e+00 8.674896e+00 9.665814e+00 8.911767e+00 7.846327e+00 5.890050e+00 6.348481e-01 9.114981e-02 2.103589e-01 3.612597e-01 4.352981e-01 7.617303e-01 9.029222e-01 1.064937e+00 1.080462e+00 1.206834e+00 1.100913e+00 9.870151e-01 7.806906e-01 4.466941e-02 1.745509e-02 3.966133e-02 6.679483e-02 8.717744e-02 1.478851e-01 1.763213e-01 2.084871e-01 2.239687e-01 2.495120e-01 2.319960e-01 2.237364e-01 1.667751e-01 9.258611e-03
<GCONST> 5.214168e+01
<TRANSP> 3
 0.000000e+00 1.000000e+00 0.000000e+00
 0.000000e+00 9.843750e-01 1.562500e-02
 0.000000e+00 0.000000e+00 0.000000e+00
<ENDHMM>
