~o
<STREAMINFO> 1 39
<VECSIZE> 39<NULLD><MFCC_D_A_0><DIAGC>
~h "proto"
<BEGINHMM>
<NUMSTATES> 3
<STATE> 2
<MEAN> 39
 -5.508645e+00 -9.528951e+00 6.150542e-01 -5.488902e+00 3.806217e-01 -6.166793e+00 2.087997e+00 -7.375200e+00 -2.410527e+00 -1.261870e+00 1.898661e+00 -1.080767e+00 6.394682e+01 1.084548e-04 1.003558e-02 -4.175260e-03 1.103434e-02 1.211609e-02 2.495422e-02 2.870524e-02 -1.734419e-02 -1.795395e-02 -2.312314e-02 2.300292e-02 -1.039512e-02 -1.853694e-02 1.829191e-03 3.433789e-03 8.871360e-03 3.414420e-03 -6.577160e-03 -2.874410e-03 -3.862668e-03 3.512199e-04 9.838640e-03 -1.064759e-04 -9.705191e-04 -1.405252e-02 2.837395e-03
<VARIANCE> 39
 7.561285e+00 1.986434e+01 3.424770e+01 2.859635e+01 2.337313e+01 2.750081e+01 2.132378e+01 2.293001e+01 2.968159e+01 2.384504e+01 2.592664e+01 2.327085e+01 2.742795e+01 1.119406e+00 1.786769e+00 1.698725e+00 2.384800e+00 1.864022e+00 3.110182e+00 2.504733e+00 2.585183e+00 2.871799e+00 2.738042e+00 2.775217e+00 2.356847e+00 2.606063e+00 2.526527e-01 3.150271e-01 3.572588e-01 4.157799e-01 3.627490e-01 6.524165e-01 5.253506e-01 5.503775e-01 5.549326e-01 5.519825e-01 6.016072e-01 4.824170e-01 5.529730e-01
<GCONST> 1.129936e+02
<TRANSP> 3
 0.000000e+00 1.000000e+00 0.000000e+00
 0.000000e+00 9.000000e-01 9.999999e-02
 0.000000e+00 0.000000e+00 0.000000e+00
<ENDHMM>
