~o
<STREAMINFO> 1 39
<VECSIZE> 39<NULLD><MFCC_D_A_0><DIAGC>
~h "proto"
<BEGINHMM>
<NUMSTATES> 3
<STATE> 2
<MEAN> 39
 -2.143715e+00 -5.317381e+00 4.384356e+00 -5.127175e+00 4.482137e+00 1.351015e+00 1.401816e+00 -4.243910e+00 3.186443e-01 -8.729062e-02 4.390317e-03 -3.020752e+00 8.220373e+01 4.362940e-04 -6.107902e-04 2.717335e-03 1.179123e-03 -4.550131e-04 -1.576243e-04 -5.499306e-04 -5.630945e-05 -1.165079e-03 9.078173e-04 2.497387e-03 1.734075e-03 -2.820014e-04 3.847876e-05 -1.682093e-04 6.962675e-06 -1.235260e-04 -2.370994e-04 -3.032009e-04 -1.098066e-04 -7.053447e-05 3.128432e-04 -9.705719e-05 9.396143e-05 7.519861e-05 -1.008666e-04
<VARIANCE> 39
 2.692127e+01 2.019242e+01 2.089944e+01 2.150587e+01 2.593405e+01 3.710788e+01 3.405716e+01 2.752748e+01 1.957158e+01 2.765841e+01 2.097077e+01 1.994924e+01 1.552050e+01 4.824505e-01 4.207314e-01 5.658499e-01 7.821721e-01 8.206171e-01 9.842793e-01 1.147641e+00 1.236207e+00 1.130117e+00 1.145879e+00 1.070067e+00 1.044280e+00 2.199260e-01 6.046679e-02 6.820619e-02 9.844881e-02 1.449714e-01 1.523801e-01 1.837742e-01 2.162634e-01 2.352566e-01 2.237057e-01 2.272613e-01 2.080486e-01 2.023945e-01 2.420911e-02
<GCONST> 8.328842e+01
<TRANSP> 3
 0.000000e+00 1.000000e+00 0.000000e+00
 0.000000e+00 9.000000e-01 9.999999e-02
 0.000000e+00 0.000000e+00 0.000000e+00
<ENDHMM>
