~o
<STREAMINFO> 1 39
<VECSIZE> 39<NULLD><MFCC_D_A_0><DIAGC>
~h "Eugene"
<BEGINHMM>
<NUMSTATES> 3
<STATE> 2
<MEAN> 39
 -5.402699e+00 -1.012703e+01 -2.930323e+00 -5.893825e+00 -2.086477e+00 -6.677620e+00 2.523817e+00 -5.556773e+00 -2.891518e+00 -1.482707e-01 -9.923100e-02 -5.904319e-01 6.642818e+01 -2.683949e-02 5.903576e-03 -1.418222e-02 4.244791e-02 4.938880e-02 1.294417e-03 -3.346064e-02 -1.671256e-02 -1.075541e-01 -5.574942e-02 1.795919e-02 2.694342e-02 -2.759260e-02 -4.813299e-03 -3.546767e-03 1.503633e-03 1.463631e-02 -2.685127e-03 -3.228319e-03 -4.430691e-03 -1.364615e-02 9.892040e-03 1.272592e-02 -1.709929e-02 -1.533168e-02 9.359566e-03
<VARIANCE> 39
 7.675267e+00 3.787097e+01 4.903359e+01 5.868643e+01 3.663796e+01 3.102624e+01 2.740550e+01 2.983537e+01 5.243811e+01 3.853472e+01 3.818903e+01 3.205319e+01 3.344987e+01 1.207882e+00 3.159271e+00 2.780989e+00 4.685847e+00 2.615350e+00 3.284504e+00 3.570836e+00 3.832246e+00 4.640499e+00 4.652538e+00 4.418603e+00 3.584929e+00 1.789528e+00 2.958469e-01 5.044705e-01 5.713362e-01 7.543023e-01 4.543604e-01 6.536343e-01 7.842922e-01 8.326355e-01 8.974468e-01 9.465019e-01 9.246622e-01 7.294388e-01 3.285064e-01
<GCONST> 1.263235e+02
<TRANSP> 3
 0.000000e+00 1.000000e+00 0.000000e+00
 0.000000e+00 9.846154e-01 1.538461e-02
 0.000000e+00 0.000000e+00 0.000000e+00
<ENDHMM>
~h "Clap"
<BEGINHMM>
<NUMSTATES> 3
<STATE> 2
<MEAN> 39
 -5.708853e+00 -8.169446e+00 4.464001e+00 -3.820993e+00 1.266312e+00 -5.537718e+00 1.120691e+00 -7.954762e+00 -1.401145e+00 -2.233224e+00 3.657058e+00 -1.718641e+00 6.249811e+01 1.818023e-02 1.867498e-03 -1.349422e-02 2.845339e-03 -7.195643e-04 4.599175e-02 3.425683e-02 -2.288126e-02 3.458701e-02 1.413336e-03 2.058875e-02 -4.622771e-02 -1.591654e-02 6.131009e-03 7.966062e-03 2.845546e-02 -5.318999e-04 -1.673895e-02 -8.417220e-03 -1.117412e-02 -3.523664e-03 -1.518340e-02 -9.289296e-03 2.707460e-03 -1.471645e-02 -1.191081e-04
<VARIANCE> 39
 1.125441e+01 8.444815e+00 8.102728e+00 6.000634e+00 1.068275e+01 2.965841e+01 1.555477e+01 1.506444e+01 1.643012e+01 1.344838e+01 1.092966e+01 1.162946e+01 3.303693e+01 1.838743e+00 1.189411e+00 1.151160e+00 7.894826e-01 1.111520e+00 4.306094e+00 1.982303e+00 1.977265e+00 2.103669e+00 1.584893e+00 1.419876e+00 1.397441e+00 5.661771e+00 4.016973e-01 2.458508e-01 2.447929e-01 1.716747e-01 2.171800e-01 9.454514e-01 4.001959e-01 4.369301e-01 4.102601e-01 3.000788e-01 3.117032e-01 2.992802e-01 1.253629e+00
<GCONST> 9.926093e+01
<TRANSP> 3
 0.000000e+00 1.000000e+00 0.000000e+00
 0.000000e+00 9.845361e-01 1.546392e-02
 0.000000e+00 0.000000e+00 0.000000e+00
<ENDHMM>
~h "sil"
<BEGINHMM>
<NUMSTATES> 3
<STATE> 2
<MEAN> 39
 -5.414442e+00 -1.029122e+01 3.282825e-01 -6.756342e+00 1.983008e+00 -6.283010e+00 2.619978e+00 -8.629901e+00 -2.939167e+00 -1.410622e+00 2.149748e+00 -9.350013e-01 6.289597e+01 9.170228e-03 2.242076e-02 1.530271e-02 -1.247338e-02 -1.264066e-02 2.771268e-02 8.593493e-02 -1.241654e-02 1.976145e-02 -1.482232e-02 3.052557e-02 -1.210229e-02 -1.202135e-02 4.216413e-03 5.930930e-03 -3.370142e-03 -3.956972e-03 -2.951030e-04 3.054692e-03 4.060563e-03 1.838860e-02 3.493637e-02 -3.841468e-03 1.162835e-02 -1.209276e-02 -7.805420e-04
<VARIANCE> 39
 3.673400e+00 1.034956e+01 1.791559e+01 1.633887e+01 1.322120e+01 2.109508e+01 1.956249e+01 1.860651e+01 1.847213e+01 1.723017e+01 2.140789e+01 2.542606e+01 6.274061e+00 3.058027e-01 1.000265e+00 1.155077e+00 1.661878e+00 1.859127e+00 1.730928e+00 1.945508e+00 1.936209e+00 1.844578e+00 1.961080e+00 2.477075e+00 2.077712e+00 3.593896e-01 5.912505e-02 1.930799e-01 2.534209e-01 3.189224e-01 4.163527e-01 3.565658e-01 3.894110e-01 3.786919e-01 3.530318e-01 4.063199e-01 5.661760e-01 4.169147e-01 7.541380e-02
<GCONST> 9.350452e+01
<TRANSP> 3
 0.000000e+00 1.000000e+00 0.000000e+00
 0.000000e+00 9.844559e-01 1.554404e-02
 0.000000e+00 0.000000e+00 0.000000e+00
<ENDHMM>
